{
    "layers": [
        {
            "type": "Dense",
            "input_dim": 784,
            "output_dim": 128,
            "activation": "ReLU",
            "weights": [
                [
                    0.06566496193408966,
                    0.03947039693593979,
                    0.018918683752417564,
                    -0.025803400203585625,
                    0.0402962751686573,
                    0.04164999723434448,
                    -0.08422262221574783,
                    -0.01663031242787838,
                    0.005111453123390675,
                    -0.08722496032714844,
                    -0.011000500060617924,
                    0.02184431254863739,
                    -0.248558908700943,
                    -0.23586030304431915,
                    -0.08108552545309067,
                    -0.10518144071102142,
                    0.0009702297975309193,
                    -0.04652216285467148,
                    0.07094483822584152,
                    -0.030603377148509026,
                    -0.09022009372711182,
                    0.03774695470929146,
                    0.008930055424571037,
                    -0.04480145499110222,
                    -0.04429156705737114,
                    0.055933963507413864,
                    0.010373597033321857,
                    0.010022138245403767,
                    0.0502144992351532,
                    0.004486729856580496,
                    0.06307860463857651,
                    -0.07066734880208969,
                    -0.022843163460493088,
                    0.031388059258461,
                    0.18299436569213867,
                    0.21652451157569885,
                    -0.016953015699982643,
                    0.37351056933403015,
                    0.3000350296497345,
                    0.46489423513412476,
                    0.732781171798706,
                    0.554424524307251,
                    0.36108890175819397,
                    0.11449506878852844,
                    0.5061672925949097,
                    0.03908533602952957,
                    0.019771281629800797,
                    -0.06568066030740738,
                    -0.16520194709300995,
                    0.02231821045279503,
                    0.22586220502853394,
                    0.19641877710819244,
                    -0.012030710466206074,
                    -0.04602256044745445,
                    -0.07061638683080673,
                    -0.013540227897465229,
                    -0.028101425617933273,
                    0.006420041434466839,
                    -0.0379294827580452,
                    0.18871216475963593,
                    -0.011372287757694721,
                    0.17361824214458466,
                    0.1330873966217041,
                    0.19254395365715027,
                    0.42066940665245056,
                    0.6233415603637695,
                    0.6849144101142883,
                    0.5920295715332031,
                    -0.008503776974976063,
                    0.333113431930542,
                    0.4426563084125519,
                    0.03714332729578018,
                    0.13712690770626068,
                    0.2142954170703888,
                    -0.04303799942135811,
                    -0.06570685654878616,
                    0.26869654655456543,
                    -0.02243547886610031,
                    0.03467720374464989,
                    0.28377315402030945,
                    0.2863485813140869,
                    -0.029026605188846588,
                    0.09644097089767456,
                    0.012539825402200222,
                    -0.03458932414650917,
                    -0.02807663567364216,
                    -0.23943930864334106,
                    -0.12033380568027496,
                    0.1660877913236618,
                    0.2962022125720978,
                    0.7785925269126892,
                    0.5990537405014038,
                    -0.002189069287851453,
                    0.6141746044158936,
                    0.800561785697937,
                    0.7332607507705688,
                    0.15307354927062988,
                    0.23427845537662506,
                    0.027899088338017464,
                    -0.07778836041688919,
                    -0.024404482915997505,
                    -0.025797534734010696,
                    -0.5775954127311707,
                    -0.5726280808448792,
                    -0.4481649696826935,
                    -0.3958047330379486,
                    -0.35588201880455017,
                    -0.3289215564727783,
                    0.046268366277217865,
                    0.13949443399906158,
                    -0.10746821761131287,
                    0.064952552318573,
                    -0.03637055307626724,
                    0.125702902674675,
                    -0.2062378078699112,
                    -0.4660073220729828,
                    -0.25457867980003357,
                    -0.3162391781806946,
                    0.34538179636001587,
                    0.40902504324913025,
                    0.25348666310310364,
                    0.42961499094963074,
                    0.44835227727890015,
                    0.023888390511274338,
                    -0.675654947757721,
                    -0.7393732070922852,
                    -0.7877963185310364,
                    -0.6281202435493469,
                    -0.33667492866516113,
                    -0.39532628655433655,
                    -0.3902870714664459,
                    -0.6034607291221619,
                    -0.37749186158180237,
                    -0.5806835889816284,
                    -0.806282103061676,
                    -0.5948920845985413,
                    -0.017610633745789528,
                    0.008344857022166252,
                    0.02168327197432518,
                    -0.01714244857430458,
                    0.023143382743000984,
                    0.03266587853431702,
                    -0.32421350479125977,
                    -0.13351614773273468,
                    -0.10967923700809479,
                    -0.5846245288848877,
                    -0.02574273943901062,
                    -0.5813177824020386,
                    -0.08212026953697205,
                    -0.1478884518146515,
                    -0.8141917586326599,
                    -1.6951535940170288,
                    -1.265337347984314,
                    -1.2800135612487793,
                    -1.5599828958511353,
                    -0.813336193561554,
                    -0.7100129127502441,
                    -0.4202008545398712,
                    -0.6516062617301941,
                    -0.6947278380393982,
                    -0.5619621276855469,
                    -0.5706735253334045,
                    -0.582297146320343,
                    -0.7320916652679443,
                    -0.36792218685150146,
                    -0.20349861681461334,
                    -0.18357640504837036,
                    -0.056606173515319824,
                    -0.03889941796660423,
                    -0.010175750590860844,
                    0.31783750653266907,
                    -0.2066190093755722,
                    -0.3215925395488739,
                    -0.7800805568695068,
                    -0.13830256462097168,
                    -0.2959408164024353,
                    -0.9162076711654663,
                    -1.1835761070251465,
                    -0.7907999157905579,
                    -1.5983558893203735,
                    -1.938356876373291,
                    -2.2549264430999756,
                    -1.4844460487365723,
                    -1.056818962097168,
                    -0.8004006147384644,
                    -1.1411290168762207,
                    -0.9860528111457825,
                    -0.5928573608398438,
                    -0.4184708893299103,
                    -0.1791139543056488,
                    -0.2034907341003418,
                    -0.8744534850120544,
                    0.27985846996307373,
                    0.7207615375518799,
                    -0.34430086612701416,
                    -0.045581232756376266,
                    -0.057608503848314285,
                    0.12392548471689224,
                    0.25416475534439087,
                    -0.28198710083961487,
                    -0.34806403517723083,
                    -1.0708568096160889,
                    -0.2714199721813202,
                    -0.7736045122146606,
                    -0.7894865870475769,
                    -0.3328254222869873,
                    -0.22516335546970367,
                    -0.94931560754776,
                    -1.6778277158737183,
                    -1.9115573167800903,
                    -1.278385877609253,
                    -1.689397931098938,
                    -1.1576099395751953,
                    -1.4398325681686401,
                    -1.3710341453552246,
                    -0.8905417323112488,
                    -1.0338358879089355,
                    -1.1692646741867065,
                    -1.2475876808166504,
                    -0.3942716121673584,
                    1.2977674007415771,
                    1.696417212486267,
                    -0.6623199582099915,
                    -0.10477869212627411,
                    -0.06687691807746887,
                    0.0064003728330135345,
                    0.21803134679794312,
                    -0.4585239589214325,
                    -0.75931316614151,
                    -1.0619083642959595,
                    -0.4881039559841156,
                    -0.6991555094718933,
                    -0.45360830426216125,
                    -0.15403158962726593,
                    0.46692773699760437,
                    0.41218486428260803,
                    -0.885745644569397,
                    -0.5435788035392761,
                    -0.10834778845310211,
                    -0.5927282571792603,
                    -1.5607339143753052,
                    -2.1428396701812744,
                    -1.5898230075836182,
                    -1.702092170715332,
                    -0.7125652432441711,
                    -1.4919157028198242,
                    -0.19689862430095673,
                    0.7662369012832642,
                    0.6752312779426575,
                    -0.10941021144390106,
                    -1.2454363107681274,
                    0.041619062423706055,
                    0.003076131222769618,
                    -0.10470185428857803,
                    0.18592789769172668,
                    -0.5626600384712219,
                    -0.3680880069732666,
                    -0.24971216917037964,
                    0.04087451100349426,
                    -0.08330978453159332,
                    -0.31640729308128357,
                    0.10852818936109543,
                    0.5506190657615662,
                    0.7818916440010071,
                    -0.18763206899166107,
                    -0.3203294575214386,
                    -0.07326789945363998,
                    -0.5722172856330872,
                    -1.2446918487548828,
                    -1.3943427801132202,
                    -1.629349946975708,
                    -1.7365856170654297,
                    -1.2029293775558472,
                    -0.05003167316317558,
                    0.5646889805793762,
                    0.5330604314804077,
                    0.09429385513067245,
                    -1.173046350479126,
                    -0.20166568458080292,
                    -0.4798784554004669,
                    -0.032151322811841965,
                    -0.08281215280294418,
                    0.17563582956790924,
                    -0.725109338760376,
                    -1.1065775156021118,
                    0.007705316878855228,
                    0.28550010919570923,
                    1.0739811658859253,
                    0.2320563644170761,
                    -0.3994522988796234,
                    -0.008144882507622242,
                    0.3041446805000305,
                    0.21296489238739014,
                    0.1741870939731598,
                    -0.06817355751991272,
                    -0.931901216506958,
                    -0.7772374749183655,
                    -1.1994969844818115,
                    -1.8591982126235962,
                    -2.050856828689575,
                    -0.17436425387859344,
                    0.5928321480751038,
                    0.5063345432281494,
                    -0.34681060910224915,
                    -0.2979848086833954,
                    -0.40979036688804626,
                    -0.12341053038835526,
                    -0.4537254571914673,
                    0.1384175419807434,
                    -0.38130396604537964,
                    0.08712314069271088,
                    -0.5582067370414734,
                    -1.223128080368042,
                    -0.9288605451583862,
                    0.6140791773796082,
                    0.988705575466156,
                    0.19069497287273407,
                    0.11804027110338211,
                    0.1848340928554535,
                    -0.19850727915763855,
                    -0.2520425319671631,
                    0.2607649862766266,
                    -0.6905667781829834,
                    -1.1333930492401123,
                    -1.1832119226455688,
                    -0.7189045548439026,
                    -2.041806697845459,
                    -0.2141706496477127,
                    0.31566956639289856,
                    0.006615482270717621,
                    0.34654533863067627,
                    -0.481707364320755,
                    0.3370027542114258,
                    -0.026420684531331062,
                    -0.14111658930778503,
                    -0.31348052620887756,
                    -0.043012525886297226,
                    -0.01846393011510372,
                    0.0026417719200253487,
                    0.23038190603256226,
                    -0.5656630992889404,
                    -1.1361851692199707,
                    0.27393999695777893,
                    -0.14199724793434143,
                    0.0359913669526577,
                    0.6896812915802002,
                    0.9449531435966492,
                    1.9464417695999146,
                    0.6398197412490845,
                    -0.5394893884658813,
                    -1.0790215730667114,
                    -0.7442469596862793,
                    -0.5232600569725037,
                    -0.8009286522865295,
                    -0.2712373733520508,
                    0.29020872712135315,
                    0.004529332276433706,
                    -0.5375679731369019,
                    -0.5434455275535583,
                    -0.22800928354263306,
                    0.16796955466270447,
                    0.2007128894329071,
                    -0.09419525414705276,
                    -0.19394686818122864,
                    0.05419233813881874,
                    -0.05410481244325638,
                    -0.11890435218811035,
                    0.9190941452980042,
                    -0.22989340126514435,
                    -1.3646161556243896,
                    0.18300671875476837,
                    -0.37309667468070984,
                    -0.5345413684844971,
                    -0.38383913040161133,
                    1.3727493286132812,
                    2.226503610610962,
                    1.9383209943771362,
                    0.12273801863193512,
                    -0.6897225975990295,
                    -0.9249616265296936,
                    -0.5524539351463318,
                    0.4576396942138672,
                    0.8121631741523743,
                    -0.06334774196147919,
                    -0.8732234835624695,
                    -0.7811349630355835,
                    -1.05526864528656,
                    0.6098307371139526,
                    0.929977297782898,
                    1.5789846181869507,
                    1.388359546661377,
                    0.4483667314052582,
                    0.11173958331346512,
                    -0.03940236195921898,
                    -0.05332206189632416,
                    0.9199975728988647,
                    -0.3730536997318268,
                    -1.453737497329712,
                    -0.3916740417480469,
                    0.3716079592704773,
                    0.008056625723838806,
                    -0.5482816100120544,
                    1.2949399948120117,
                    2.254934072494507,
                    2.13460111618042,
                    0.010011361911892891,
                    -1.1022261381149292,
                    0.1567562073469162,
                    0.4987095892429352,
                    0.6708666086196899,
                    0.5631322860717773,
                    -0.9808682799339294,
                    -1.1364136934280396,
                    -1.4105844497680664,
                    -0.6979016065597534,
                    0.7350824475288391,
                    1.6070488691329956,
                    3.1113028526306152,
                    1.790773630142212,
                    0.15099656581878662,
                    -0.10936519503593445,
                    0.04940582811832428,
                    -0.17437714338302612,
                    0.32433968782424927,
                    -0.4282257854938507,
                    -1.6172715425491333,
                    -0.14528439939022064,
                    0.704420804977417,
                    0.2222018986940384,
                    -0.1357678920030594,
                    0.24251927435398102,
                    1.1262270212173462,
                    1.3917343616485596,
                    0.516281247138977,
                    0.315272718667984,
                    0.6585927605628967,
                    0.9113273024559021,
                    0.0979943573474884,
                    -0.13485543429851532,
                    -0.2112298160791397,
                    -0.33347976207733154,
                    0.0121443010866642,
                    1.017186164855957,
                    2.2595183849334717,
                    2.204171895980835,
                    2.292738437652588,
                    0.9705024361610413,
                    1.204315185546875,
                    -0.014653648249804974,
                    0.10442637652158737,
                    -0.166812926530838,
                    -0.04717842489480972,
                    0.0027161026373505592,
                    -1.0751551389694214,
                    -0.7948600649833679,
                    -1.2374165058135986,
                    -0.2971487045288086,
                    -0.44087129831314087,
                    0.019882287830114365,
                    0.5262812972068787,
                    0.43466660380363464,
                    0.19451333582401276,
                    0.9361796975135803,
                    1.280513882637024,
                    0.7747272849082947,
                    0.1822626143693924,
                    -0.23213796317577362,
                    0.20854820311069489,
                    0.7429606914520264,
                    1.1703003644943237,
                    1.339647650718689,
                    1.5909000635147095,
                    2.0689241886138916,
                    2.4982385635375977,
                    2.2038159370422363,
                    0.8151547312736511,
                    0.08545710891485214,
                    0.028973499312996864,
                    -0.3803205192089081,
                    -0.4437538683414459,
                    0.15998001396656036,
                    -0.8127009868621826,
                    -0.7937138080596924,
                    -1.8223135471343994,
                    -1.8279625177383423,
                    -1.3142426013946533,
                    -0.35243359208106995,
                    0.3429133892059326,
                    0.5655695199966431,
                    0.348160982131958,
                    0.5002054572105408,
                    -0.3237163722515106,
                    -1.0312021970748901,
                    -0.8074982166290283,
                    -0.4695025682449341,
                    -0.3905203640460968,
                    -0.2194163054227829,
                    -0.4421023428440094,
                    -0.5317146182060242,
                    -0.01282801479101181,
                    -0.23350165784358978,
                    -0.5781149864196777,
                    -0.3104214370250702,
                    0.5971300005912781,
                    -0.031087275594472885,
                    -0.007425042800605297,
                    -0.2786337733268738,
                    -0.44592994451522827,
                    0.1323143094778061,
                    0.025213994085788727,
                    -1.0677026510238647,
                    -1.9499720335006714,
                    -2.2264389991760254,
                    -1.1095519065856934,
                    0.5311444997787476,
                    0.8360244631767273,
                    0.8666337132453918,
                    -0.04514577239751816,
                    -0.4269166588783264,
                    -0.7596916556358337,
                    -0.9089937806129456,
                    -0.5648764967918396,
                    -0.8036879897117615,
                    -0.6152525544166565,
                    -1.037173867225647,
                    -1.1288362741470337,
                    -1.1648362874984741,
                    -0.30596399307250977,
                    -0.953178346157074,
                    -0.3013135492801666,
                    -0.7939034104347229,
                    0.6104655265808105,
                    -0.017394455149769783,
                    -0.16015256941318512,
                    0.030578305944800377,
                    -0.04015999287366867,
                    0.26366013288497925,
                    0.5531662702560425,
                    -0.7861851453781128,
                    -1.4801151752471924,
                    -1.7286736965179443,
                    -0.917790412902832,
                    0.3900798559188843,
                    -0.08149177581071854,
                    -0.8255079984664917,
                    -2.231905460357666,
                    -1.7209059000015259,
                    -0.8914269804954529,
                    -1.0434707403182983,
                    -0.9096711277961731,
                    -1.7882757186889648,
                    -1.588027000427246,
                    -1.515916109085083,
                    -1.1003310680389404,
                    -0.7799800038337708,
                    -0.3490123152732849,
                    -1.1008691787719727,
                    0.3197893798351288,
                    0.8076919913291931,
                    0.24134410917758942,
                    -0.013138542883098125,
                    -0.2791837751865387,
                    0.035848211497068405,
                    0.16092847287654877,
                    0.08975920081138611,
                    -0.03405439853668213,
                    -0.7170231342315674,
                    -0.8670274615287781,
                    -1.1580570936203003,
                    -1.4752082824707031,
                    0.9718000888824463,
                    0.4912971556186676,
                    -1.2730125188827515,
                    -1.9083305597305298,
                    -0.8603041768074036,
                    -0.9093999266624451,
                    -1.1967166662216187,
                    -1.2932815551757812,
                    -1.2319145202636719,
                    -1.051479697227478,
                    -0.7054169178009033,
                    -0.40752339363098145,
                    -0.7611322999000549,
                    -0.7096903324127197,
                    -0.47415053844451904,
                    -0.1304754763841629,
                    0.7111430764198303,
                    -0.013481386005878448,
                    0.01736709661781788,
                    -0.11074129492044449,
                    0.2249501496553421,
                    0.08889362961053848,
                    0.13345982134342194,
                    0.14602424204349518,
                    -0.2289876937866211,
                    -0.6722526550292969,
                    -0.7783505916595459,
                    -0.8659582138061523,
                    -1.405566692352295,
                    -1.4380691051483154,
                    -1.5799068212509155,
                    -1.6414754390716553,
                    -1.079606294631958,
                    -1.8302451372146606,
                    -1.1728637218475342,
                    -1.4064732789993286,
                    -1.1556051969528198,
                    -1.0831561088562012,
                    -1.0622869729995728,
                    -0.842021107673645,
                    -0.22184661030769348,
                    -0.2142612785100937,
                    -0.2607596516609192,
                    -0.1966414749622345,
                    -0.20791690051555634,
                    -0.12687009572982788,
                    -0.09241016954183578,
                    0.01689980924129486,
                    0.11546455323696136,
                    0.011921313591301441,
                    -0.05747164413332939,
                    -0.043886493891477585,
                    -0.10741137713193893,
                    -0.23937706649303436,
                    -0.6488676071166992,
                    -1.1202501058578491,
                    -1.685722827911377,
                    -1.9058350324630737,
                    -1.9344868659973145,
                    -1.3113243579864502,
                    -1.1334593296051025,
                    -1.6140819787979126,
                    -1.3412786722183228,
                    -1.5144001245498657,
                    -1.043195128440857,
                    -0.25360560417175293,
                    -0.35401442646980286,
                    -0.35939812660217285,
                    -0.09076589345932007,
                    -0.4140375256538391,
                    -0.20316104590892792,
                    -0.05790968984365463,
                    -0.2729226052761078,
                    0.012766094878315926,
                    -0.03255267068743706,
                    0.04965192452073097,
                    -0.07964684069156647,
                    -0.05961766839027405,
                    -0.11446769535541534,
                    -0.1574420928955078,
                    -0.18274378776550293,
                    -0.24325579404830933,
                    -0.6681068539619446,
                    -0.7166010737419128,
                    -1.2511916160583496,
                    -1.5228077173233032,
                    -1.7778668403625488,
                    -1.321929693222046,
                    -1.4602525234222412,
                    -1.6542327404022217,
                    -1.4940991401672363,
                    -2.1431643962860107,
                    -1.6579395532608032,
                    -1.1189303398132324,
                    -0.2989404797554016,
                    -0.6078722476959229,
                    -0.2353091984987259,
                    -0.6597303748130798,
                    -0.8322409987449646,
                    -0.22819386422634125,
                    -0.20673580467700958,
                    -0.04435889795422554,
                    0.10162000358104706,
                    -0.010398445650935173,
                    -0.08361347019672394,
                    0.04930557310581207,
                    -0.04449460282921791,
                    -0.08848962187767029,
                    0.07201521843671799,
                    0.13018116354942322,
                    -0.4897755980491638,
                    -0.9519472122192383,
                    -0.9340077638626099,
                    -1.3215770721435547,
                    -1.083639144897461,
                    -1.2549115419387817,
                    -0.875343382358551,
                    -0.8425315618515015,
                    -0.7741094827651978,
                    -1.146743893623352,
                    -1.5419962406158447,
                    -1.294552206993103,
                    -1.1101996898651123,
                    -0.7496935725212097,
                    -0.6298038959503174,
                    -0.7210004925727844,
                    0.11181477457284927,
                    0.19561998546123505,
                    0.17692412436008453,
                    -0.01953212544322014,
                    0.0046624476090073586,
                    -0.006861697416752577,
                    0.04421042650938034,
                    0.002493130275979638,
                    0.00841765571385622,
                    0.00021600504987873137,
                    0.25778907537460327,
                    0.30526256561279297,
                    0.20293907821178436,
                    0.20438168942928314,
                    0.3468239903450012,
                    0.15379446744918823,
                    -0.40064704418182373,
                    -0.26538005471229553,
                    0.2214001715183258,
                    0.010066450573503971,
                    0.13621482253074646,
                    0.15326093137264252,
                    -0.3330445885658264,
                    -0.6408999562263489,
                    -0.6527931094169617,
                    -0.34151384234428406,
                    -0.0816645473241806,
                    -0.1612919420003891,
                    -0.20972469449043274,
                    0.19179005920886993,
                    0.22905753552913666,
                    0.0021457280963659286,
                    -0.09499424695968628,
                    0.04314262419939041,
                    0.017952293157577515,
                    0.039100270718336105,
                    0.0015265124384313822,
                    0.08927446603775024,
                    -0.09602779895067215,
                    0.0216678399592638,
                    0.14606738090515137,
                    0.06206260621547699,
                    0.04103780537843704,
                    -0.11455924808979034,
                    -0.1084543988108635,
                    -0.21199147403240204,
                    0.11865133792161942,
                    0.06235795468091965,
                    -0.03550957143306732,
                    -0.06453963369131088,
                    -0.15086273849010468,
                    -0.13671718537807465,
                    -0.1323326975107193,
                    0.1847551167011261,
                    0.003350395243614912,
                    0.03553022816777229,
                    -0.04346803203225136,
                    -0.06774609535932541,
                    0.0441322922706604,
                    -0.04922179505228996,
                    -0.05849531665444374,
                    -0.014748944900929928,
                    0.09927085787057877,
                    -0.07064861804246902,
                    -0.014935826882719994,
                    -0.07052286714315414,
                    0.000927669694647193,
                    0.2056981325149536,
                    0.2709238827228546,
                    0.2712358236312866,
                    0.45840322971343994,
                    0.2810153067111969,
                    -0.036674804985523224,
                    -0.05349923297762871,
                    -0.12095864117145538,
                    0.05044088140130043,
                    0.04073803499341011,
                    -0.020870070904493332,
                    -0.0748189240694046,
                    -0.03010520339012146,
                    -0.019545357674360275,
                    -0.09092559665441513,
                    0.02687668986618519,
                    0.04718976467847824,
                    0.020382434129714966,
                    -0.044053178280591965,
                    0.0741998478770256,
                    -0.04591808095574379
                ],
                [
                    0.08084871619939804,
                    0.06265870481729507,
                    -0.015897849574685097,
                    0.11472123116254807,
                    0.001955315237864852,
                    -0.01012352854013443,
                    0.0509507842361927,
                    -0.06986658275127411,
                    -0.016622547060251236,
                    0.08092134445905685,
                    0.009073912166059017,
                    -0.022255241870880127,
                    0.10141827166080475,
                    0.11669765412807465,
                    0.1959056705236435,
                    0.11352945119142532,
                    0.04529361426830292,
                    0.04234893247485161,
                    -0.031406648457050323,
                    -0.037826456129550934,
                    0.0251444224268198,
                    -0.050068292766809464,
                    0.030411256477236748,
                    -0.03143051266670227,
                    0.008889609947800636,
                    0.008200669661164284,
                    -0.005632476415485144,
                    0.014781407080590725,
                    0.04282908886671066,
                    0.002322328742593527,
                    -0.057505082339048386,
                    0.04099961742758751,
                    -0.06820946931838989,
                    0.08771441876888275,
                    0.005987371318042278,
                    -0.178719162940979,
                    0.1652400642633438,
                    -0.43938758969306946,
                    -1.0851521492004395,
                    -1.2691277265548706,
                    -1.0949355363845825,
                    -0.03129350021481514,
                    0.2591245472431183,
                    -0.7400574684143066,
                    -0.35290899872779846,
                    -0.1531519740819931,
                    -0.4565524756908417,
                    -0.6805492043495178,
                    -0.49521568417549133,
                    -0.5534657835960388,
                    0.015352239832282066,
                    -0.043115269392728806,
                    0.021807504817843437,
                    0.19499266147613525,
                    -0.013495025224983692,
                    0.025223731994628906,
                    0.009222790598869324,
                    0.04464542120695114,
                    -0.040782976895570755,
                    0.006020478438585997,
                    0.02241137996315956,
                    -0.037974439561367035,
                    0.037209078669548035,
                    -0.2771730124950409,
                    1.714013695716858,
                    1.292523980140686,
                    1.790122389793396,
                    0.8062615394592285,
                    -0.04171624407172203,
                    -0.6050178408622742,
                    -1.0474867820739746,
                    -0.8998127579689026,
                    -1.7171655893325806,
                    -0.6195045113563538,
                    -1.2525211572647095,
                    -1.007047176361084,
                    -1.5567505359649658,
                    -0.8564788699150085,
                    -0.45140939950942993,
                    0.5760869979858398,
                    1.101433277130127,
                    0.31067049503326416,
                    -0.11353438347578049,
                    -0.012444216758012772,
                    0.07231464982032776,
                    -0.0007822320330888033,
                    0.4691092371940613,
                    0.14585106074810028,
                    0.3504646420478821,
                    0.6185814142227173,
                    1.4817558526992798,
                    2.2927825450897217,
                    2.1370770931243896,
                    3.463899850845337,
                    2.413862466812134,
                    2.22554087638855,
                    0.49894237518310547,
                    0.16137626767158508,
                    -1.892113208770752,
                    -0.7568785548210144,
                    -1.3816397190093994,
                    -1.0600866079330444,
                    -0.1525522917509079,
                    -0.711669385433197,
                    -3.0074715614318848,
                    -0.6227390170097351,
                    0.27485391497612,
                    0.5203269124031067,
                    1.182248592376709,
                    0.8301025032997131,
                    0.004189766012132168,
                    -0.0024739778600633144,
                    0.05433882400393486,
                    0.006417766213417053,
                    0.4930798411369324,
                    0.42041248083114624,
                    0.34189873933792114,
                    0.6369123458862305,
                    -0.801926851272583,
                    2.1391355991363525,
                    1.874206304550171,
                    3.292996883392334,
                    2.5144779682159424,
                    0.48334088921546936,
                    -0.21866779029369354,
                    0.24839474260807037,
                    0.07121608406305313,
                    0.2411809116601944,
                    0.21821555495262146,
                    -1.0067245960235596,
                    -0.15379299223423004,
                    -0.6686217784881592,
                    -0.6224308013916016,
                    0.060384757816791534,
                    1.6591333150863647,
                    0.599990725517273,
                    -0.7299787998199463,
                    -1.2459248304367065,
                    0.2658413052558899,
                    -0.7691837549209595,
                    0.0475015714764595,
                    -0.08117197453975677,
                    0.05243733897805214,
                    -0.5044211745262146,
                    0.31739750504493713,
                    -1.9950206279754639,
                    0.5628450512886047,
                    1.5894323587417603,
                    1.9054075479507446,
                    0.8679816126823425,
                    1.060876727104187,
                    2.439136028289795,
                    1.2556363344192505,
                    1.3098671436309814,
                    0.27190831303596497,
                    0.23880675435066223,
                    -0.1677100509405136,
                    -0.9643381834030151,
                    -0.15410809218883514,
                    -0.14217840135097504,
                    -0.611578106880188,
                    0.5924720764160156,
                    0.34462928771972656,
                    -0.6063369512557983,
                    -1.5521955490112305,
                    -1.20661199092865,
                    -0.7255315184593201,
                    -0.9102938175201416,
                    0.017141418531537056,
                    0.01123719196766615,
                    -0.5210539102554321,
                    -1.1134804487228394,
                    0.30505260825157166,
                    -3.538093328475952,
                    -0.1032005026936531,
                    0.7957726120948792,
                    1.4200656414031982,
                    0.6623216867446899,
                    0.401750385761261,
                    0.24507451057434082,
                    0.21152330935001373,
                    -0.7395839095115662,
                    -0.9993811845779419,
                    -1.3722339868545532,
                    -0.5668465495109558,
                    -0.7178643941879272,
                    -0.40933355689048767,
                    0.5690184831619263,
                    -0.2977883219718933,
                    -0.12824612855911255,
                    -0.015983227640390396,
                    0.4770539402961731,
                    -1.1249226331710815,
                    -1.9749650955200195,
                    0.3094313144683838,
                    -0.20785218477249146,
                    0.05866743624210358,
                    1.2862645387649536,
                    -0.5392851233482361,
                    0.7551253437995911,
                    2.033083200454712,
                    0.24528031051158905,
                    0.4634825587272644,
                    1.523147702217102,
                    -0.22830168902873993,
                    -1.391686201095581,
                    -0.9712749719619751,
                    -0.6141430735588074,
                    0.15891003608703613,
                    -0.37401899695396423,
                    -1.00670325756073,
                    -1.3434534072875977,
                    -0.07028914988040924,
                    -0.6099244952201843,
                    -0.44290685653686523,
                    -0.10427677631378174,
                    0.35720211267471313,
                    -0.47332629561424255,
                    1.5124831199645996,
                    0.21293272078037262,
                    -0.5075423717498779,
                    0.007170394062995911,
                    0.7277575135231018,
                    -0.17567788064479828,
                    -0.6737531423568726,
                    2.3734898567199707,
                    -0.6193248629570007,
                    1.702853798866272,
                    1.1430439949035645,
                    0.2819102704524994,
                    -0.5549231767654419,
                    -1.1345360279083252,
                    -1.9007408618927002,
                    -2.2631123065948486,
                    -2.423917293548584,
                    -0.7514667510986328,
                    -0.5719566345214844,
                    -0.7200733423233032,
                    0.19256599247455597,
                    0.27922841906547546,
                    -0.0773497223854065,
                    -0.5766934156417847,
                    -0.5167235136032104,
                    -0.5260030031204224,
                    1.2515408992767334,
                    -1.0667481422424316,
                    1.4622631072998047,
                    2.2530782222747803,
                    0.29638415575027466,
                    0.3308434784412384,
                    1.8850328922271729,
                    -0.0113921407610178,
                    0.29081618785858154,
                    -0.6248984336853027,
                    -0.9000458121299744,
                    2.2905073165893555,
                    -0.2253696173429489,
                    -1.1693742275238037,
                    -0.5292432904243469,
                    -2.0168375968933105,
                    -1.7545241117477417,
                    -2.473762273788452,
                    -1.0546492338180542,
                    0.024142157286405563,
                    0.709997832775116,
                    0.5743952989578247,
                    1.5219309329986572,
                    0.17516809701919556,
                    0.7456728219985962,
                    0.6225779056549072,
                    0.08908040821552277,
                    -0.8477322459220886,
                    0.18165886402130127,
                    -0.3124932646751404,
                    -0.45077967643737793,
                    1.2031402587890625,
                    0.0020187469199299812,
                    0.508589506149292,
                    2.1636033058166504,
                    -0.3320750594139099,
                    0.25355347990989685,
                    -0.5678178668022156,
                    -0.5777724981307983,
                    1.5311017036437988,
                    -1.520771861076355,
                    -1.0394287109375,
                    -0.4375714361667633,
                    -1.0080020427703857,
                    -0.7886520028114319,
                    -1.9727779626846313,
                    1.8216108083724976,
                    0.5722942352294922,
                    0.0485568568110466,
                    1.4198075532913208,
                    0.359112024307251,
                    -1.0991586446762085,
                    -0.8132320642471313,
                    -0.3895584046840668,
                    0.2227959930896759,
                    -0.9131525754928589,
                    -0.04823071509599686,
                    -0.04653579369187355,
                    -0.9045607447624207,
                    0.2164977639913559,
                    1.1010476350784302,
                    2.5149850845336914,
                    1.5432298183441162,
                    -0.21428309381008148,
                    0.3060219883918762,
                    -0.5039010643959045,
                    -0.6393477916717529,
                    -0.32518893480300903,
                    -2.169682502746582,
                    -0.6983022093772888,
                    0.174626886844635,
                    1.216139554977417,
                    1.1758249998092651,
                    -0.08834447711706161,
                    1.4637621641159058,
                    1.4702913761138916,
                    0.9878557920455933,
                    1.0580501556396484,
                    -0.07743651419878006,
                    -0.43288207054138184,
                    -0.7226619720458984,
                    -0.6333553791046143,
                    -0.2922429144382477,
                    -0.21537663042545319,
                    -0.5799775719642639,
                    -1.3237916231155396,
                    -0.4721464514732361,
                    0.3075965344905853,
                    0.7411460280418396,
                    1.4267925024032593,
                    0.5500242710113525,
                    -0.028461050242185593,
                    0.05662495642900467,
                    -0.042510148137807846,
                    -0.2893740236759186,
                    -1.153200387954712,
                    -0.29777300357818604,
                    -0.7374066114425659,
                    1.45072340965271,
                    0.034578077495098114,
                    2.3583409786224365,
                    1.1256901025772095,
                    1.3725366592407227,
                    1.0157074928283691,
                    -0.9159038662910461,
                    -4.2613019943237305,
                    -2.482081413269043,
                    -1.2122794389724731,
                    -1.7434805631637573,
                    -1.0195467472076416,
                    -0.4275997579097748,
                    0.6909601092338562,
                    -0.21756082773208618,
                    0.29618731141090393,
                    -0.6681275367736816,
                    -0.24113056063652039,
                    1.311850905418396,
                    0.7204129695892334,
                    -0.18050293624401093,
                    -0.18974702060222626,
                    -0.017669042572379112,
                    0.1433335393667221,
                    -0.18962353467941284,
                    -1.4355692863464355,
                    0.009092556312680244,
                    -0.44113755226135254,
                    -0.7465880513191223,
                    -3.3677730560302734,
                    -1.7269294261932373,
                    -0.9593320488929749,
                    -1.7886593341827393,
                    -3.7063422203063965,
                    -3.5917460918426514,
                    -4.226518630981445,
                    -1.0943855047225952,
                    -1.9442284107208252,
                    -2.0140914916992188,
                    -0.32531678676605225,
                    -0.3818352222442627,
                    -0.6642211675643921,
                    0.03360266610980034,
                    1.5140414237976074,
                    0.8980149626731873,
                    -0.10560785233974457,
                    0.9318086504936218,
                    0.21447154879570007,
                    -0.1131272092461586,
                    -0.3507789075374603,
                    0.008100991137325764,
                    -0.1419486254453659,
                    0.11083050072193146,
                    -1.3334529399871826,
                    -1.3712587356567383,
                    -3.8674843311309814,
                    -4.897961139678955,
                    -5.573742389678955,
                    -6.490089416503906,
                    -4.618165493011475,
                    -3.9929802417755127,
                    -5.133993148803711,
                    -1.5855207443237305,
                    -0.8843833804130554,
                    -0.36667099595069885,
                    0.03074418194591999,
                    -0.6492483615875244,
                    -0.8771060109138489,
                    -1.3294414281845093,
                    -0.5058572888374329,
                    0.0544334314763546,
                    1.3374227285385132,
                    0.7676248550415039,
                    -0.15160953998565674,
                    0.2034686803817749,
                    0.14289887249469757,
                    2.4752085208892822,
                    0.021379772573709488,
                    0.006051934789866209,
                    -0.11222370713949203,
                    -0.9595633745193481,
                    -1.8580505847930908,
                    -3.0096046924591064,
                    -3.946049690246582,
                    -3.3674957752227783,
                    -4.62086820602417,
                    -4.906819820404053,
                    -2.7463021278381348,
                    -1.1621332168579102,
                    -0.5264040231704712,
                    1.150642991065979,
                    1.5645569562911987,
                    0.8524488210678101,
                    0.2812170386314392,
                    -0.736046314239502,
                    -1.1124932765960693,
                    -0.9966638088226318,
                    -0.09407941997051239,
                    -0.3191847801208496,
                    0.3645833134651184,
                    0.2858539819717407,
                    1.2829928398132324,
                    1.3258495330810547,
                    0.32597067952156067,
                    2.621013641357422,
                    0.1708422154188156,
                    -0.045129142701625824,
                    -0.26954036951065063,
                    0.12336134165525436,
                    -2.1167497634887695,
                    -2.2071826457977295,
                    -1.6756854057312012,
                    -0.20534648001194,
                    -1.8615797758102417,
                    -2.920153856277466,
                    -0.6536606550216675,
                    1.3970783948898315,
                    1.5684406757354736,
                    2.2801785469055176,
                    1.2205957174301147,
                    0.3154720067977905,
                    -0.8969354629516602,
                    -1.2999755144119263,
                    -0.988125741481781,
                    0.9559707641601562,
                    0.21906819939613342,
                    -1.542211651802063,
                    -0.18896780908107758,
                    -0.15722064673900604,
                    0.9416419863700867,
                    0.19568708539009094,
                    1.7134547233581543,
                    1.1317280530929565,
                    0.3850071132183075,
                    0.018726861104369164,
                    -0.28458061814308167,
                    -0.07054491341114044,
                    -0.8973256349563599,
                    -1.698681116104126,
                    0.04229909926652908,
                    -0.12845872342586517,
                    -1.042211651802063,
                    0.21591898798942566,
                    0.8671663999557495,
                    1.0175267457962036,
                    1.8887439966201782,
                    2.8927133083343506,
                    1.608876347541809,
                    0.31317269802093506,
                    -0.44545137882232666,
                    -0.10379822552204132,
                    -1.287888526916504,
                    -2.1035759449005127,
                    -2.0832700729370117,
                    -1.5032877922058105,
                    -0.2750907838344574,
                    -1.1291823387145996,
                    -0.9114766120910645,
                    -1.0966163873672485,
                    2.6419901847839355,
                    0.4072616994380951,
                    0.3704644739627838,
                    -0.05165696516633034,
                    0.005136104766279459,
                    -0.1281622052192688,
                    0.6507328152656555,
                    -0.055034980177879333,
                    0.04067908227443695,
                    1.4985709190368652,
                    2.0800020694732666,
                    0.7552871108055115,
                    -0.19674471020698547,
                    1.395829439163208,
                    0.61378014087677,
                    1.0488179922103882,
                    1.036275029182434,
                    -0.2205195426940918,
                    -0.05994956195354462,
                    -1.027471661567688,
                    -1.438714861869812,
                    -2.073594093322754,
                    -1.0439836978912354,
                    -0.01100957952439785,
                    -0.1524023711681366,
                    -0.4975603520870209,
                    0.8852710723876953,
                    -0.7326635718345642,
                    0.5546355247497559,
                    0.3063657581806183,
                    0.06451641023159027,
                    0.021198811009526253,
                    0.05215795338153839,
                    1.3499561548233032,
                    -0.16254262626171112,
                    1.3448814153671265,
                    0.2418220341205597,
                    1.6225109100341797,
                    1.451150894165039,
                    1.1425203084945679,
                    -0.2634012699127197,
                    1.0337145328521729,
                    0.4123647212982178,
                    0.7049654722213745,
                    0.7006948590278625,
                    -0.28028589487075806,
                    -0.4686066210269928,
                    -1.6471168994903564,
                    -0.46989965438842773,
                    -1.8330559730529785,
                    0.010918524116277695,
                    -0.12220627814531326,
                    -1.254555344581604,
                    -1.3984297513961792,
                    0.1351570338010788,
                    -1.3496142625808716,
                    -0.43756338953971863,
                    -0.12708266079425812,
                    -0.09639030694961548,
                    0.05783418193459511,
                    0.3622260093688965,
                    2.037762403488159,
                    2.33141827583313,
                    0.3689562678337097,
                    2.6432504653930664,
                    1.994340419769287,
                    1.988696575164795,
                    2.8236241340637207,
                    2.0661914348602295,
                    1.043315052986145,
                    -0.20078186690807343,
                    0.01048951130360365,
                    -0.5779314637184143,
                    -0.9401649832725525,
                    0.24236822128295898,
                    -0.25026050209999084,
                    -0.4566265940666199,
                    -1.280421257019043,
                    -0.9817332625389099,
                    -1.7667406797409058,
                    -1.3760037422180176,
                    -0.6142178177833557,
                    -0.4215107858181,
                    -0.8218446969985962,
                    0.8842223286628723,
                    -0.7264642119407654,
                    0.007073669694364071,
                    -0.0030116161797195673,
                    0.477865606546402,
                    2.4215452671051025,
                    -0.7296199202537537,
                    0.09513931721448898,
                    1.4746429920196533,
                    1.0246894359588623,
                    0.08802283555269241,
                    0.8432353734970093,
                    1.845394492149353,
                    0.964219331741333,
                    -0.1795147955417633,
                    0.8870072960853577,
                    0.6854614615440369,
                    0.5308498740196228,
                    0.12611036002635956,
                    0.47617653012275696,
                    0.4085138142108917,
                    0.2913662791252136,
                    0.13525523245334625,
                    -1.8829796314239502,
                    -1.1177747249603271,
                    -0.07011561840772629,
                    0.001690568751655519,
                    1.2497271299362183,
                    1.1414157152175903,
                    0.3403664231300354,
                    -0.23005422949790955,
                    -0.05360783264040947,
                    -0.019183693453669548,
                    2.8052220344543457,
                    -2.2076776027679443,
                    -0.3357970416545868,
                    0.4860934317111969,
                    0.43058428168296814,
                    0.8377912640571594,
                    0.23810729384422302,
                    0.9285175800323486,
                    0.7325877547264099,
                    0.6253913640975952,
                    0.4543910324573517,
                    -0.5710036158561707,
                    -0.9347820281982422,
                    -1.116629719734192,
                    0.5690118074417114,
                    0.20899277925491333,
                    1.7089149951934814,
                    1.0017095804214478,
                    -0.36153626441955566,
                    -0.23985852301120758,
                    1.9890172481536865,
                    2.487745761871338,
                    1.9881905317306519,
                    1.1708158254623413,
                    0.28465861082077026,
                    -0.15528766810894012,
                    -0.04783138260245323,
                    0.021188948303461075,
                    0.17219360172748566,
                    -4.675659656524658,
                    -2.355501174926758,
                    1.6426199674606323,
                    1.215645670890808,
                    0.6942164897918701,
                    -0.25630101561546326,
                    0.10150829702615738,
                    0.44020798802375793,
                    0.9025589227676392,
                    0.3890899419784546,
                    -0.10931837558746338,
                    -0.4677681028842926,
                    0.3757464289665222,
                    1.3937559127807617,
                    0.6636012196540833,
                    0.6841360926628113,
                    1.0569593906402588,
                    0.5539958477020264,
                    4.244760513305664,
                    3.0308167934417725,
                    2.1491644382476807,
                    1.7293070554733276,
                    1.0924100875854492,
                    0.6518272757530212,
                    -0.07975476235151291,
                    -0.037538930773735046,
                    0.03410195931792259,
                    -0.8264645338058472,
                    -1.460866928100586,
                    -0.16844448447227478,
                    0.17422552406787872,
                    0.7607669234275818,
                    -1.7984657287597656,
                    -3.3338706493377686,
                    -1.6090811491012573,
                    0.7817891836166382,
                    1.2002806663513184,
                    -0.11325423419475555,
                    -0.344958633184433,
                    -0.11208610981702805,
                    0.7699607014656067,
                    0.9537245035171509,
                    1.9148446321487427,
                    2.090728282928467,
                    3.0941593647003174,
                    3.4293150901794434,
                    2.720616340637207,
                    1.5531481504440308,
                    0.6457509994506836,
                    1.7168627977371216,
                    0.6360629200935364,
                    -0.09310677647590637,
                    0.0716184452176094,
                    -0.01436076033860445,
                    0.029018105939030647,
                    -0.1987091302871704,
                    0.3877458870410919,
                    -1.1358822584152222,
                    -1.8664534091949463,
                    1.0067018270492554,
                    1.468626856803894,
                    0.6277578473091125,
                    -1.0977520942687988,
                    0.9364178776741028,
                    1.3168070316314697,
                    0.9093969464302063,
                    2.1678402423858643,
                    1.7339990139007568,
                    1.553584098815918,
                    0.030472105368971825,
                    1.7068941593170166,
                    0.5524112582206726,
                    0.5855334401130676,
                    1.3867372274398804,
                    0.9065183997154236,
                    0.16655981540679932,
                    -0.7939892411231995,
                    -0.7691251635551453,
                    0.1863933801651001,
                    0.12021490931510925,
                    0.046881575137376785,
                    0.023198015987873077,
                    0.026851408183574677,
                    0.033709291368722916,
                    -0.06697769463062286,
                    -1.8740094900131226,
                    0.1397435963153839,
                    -0.12318786978721619,
                    0.8248207569122314,
                    0.3723696172237396,
                    0.8157944083213806,
                    0.8974302411079407,
                    -0.05753883719444275,
                    -1.1270538568496704,
                    1.9764422178268433,
                    1.4032071828842163,
                    1.0148729085922241,
                    -2.336357355117798,
                    -2.8185696601867676,
                    -2.772644281387329,
                    -0.49123939871788025,
                    -1.5958008766174316,
                    -1.7766600847244263,
                    -0.9151628613471985,
                    0.3384392261505127,
                    0.029429880902171135,
                    0.014112421311438084,
                    0.09074785560369492,
                    -0.010445688851177692,
                    0.09002603590488434,
                    0.08067211508750916,
                    0.07169338315725327,
                    0.0076617891900241375,
                    0.4234279990196228,
                    0.1327643096446991,
                    0.07015614211559296,
                    -0.176152765750885,
                    -0.22315049171447754,
                    0.18230585753917694,
                    0.21919682621955872,
                    0.9851972460746765,
                    -0.20173613727092743,
                    -0.022351562976837158,
                    0.8552029728889465,
                    0.20554260909557343,
                    0.15772651135921478,
                    0.19773083925247192,
                    -0.1030442863702774,
                    -0.10779430717229843,
                    -1.2141363620758057,
                    -1.7588404417037964,
                    -0.7646130323410034,
                    -0.005224702414125204,
                    0.04336974397301674,
                    0.025247471407055855,
                    -0.08064179867506027,
                    0.10028064996004105
                ],
                [
                    -0.04416363313794136,
                    0.07931628823280334,
                    0.0726584643125534,
                    -0.025893040001392365,
                    -0.028596296906471252,
                    -0.023208456113934517,
                    0.0043282704427838326,
                    -0.0720205083489418,
                    0.08317834883928299,
                    -0.040277086198329926,
                    0.19219030439853668,
                    0.02011296898126602,
                    0.026509612798690796,
                    -0.013885926455259323,
                    -0.026352765038609505,
                    0.09142421931028366,
                    -0.03090437315404415,
                    0.0859353318810463,
                    -0.03708778694272041,
                    0.0639893114566803,
                    0.01349297072738409,
                    0.012552259489893913,
                    -0.037568576633930206,
                    0.060984522104263306,
                    0.04340149462223053,
                    0.04319624975323677,
                    -0.07443356513977051,
                    -0.018760915845632553,
                    0.07563608884811401,
                    0.0034436387941241264,
                    -0.02784052863717079,
                    -0.04807325452566147,
                    -0.048679545521736145,
                    0.07898103445768356,
                    0.006834379397332668,
                    0.059538885951042175,
                    -0.037575967609882355,
                    -0.03511703014373779,
                    0.06116248294711113,
                    -0.06138356029987335,
                    -0.028541231527924538,
                    -0.025092680007219315,
                    0.008258319459855556,
                    -0.010738933458924294,
                    0.08268100023269653,
                    -0.011941776610910892,
                    0.2549211084842682,
                    0.1429809033870697,
                    0.22895485162734985,
                    0.057752639055252075,
                    0.029796231538057327,
                    -0.016862843185663223,
                    0.14020581543445587,
                    0.012199497781693935,
                    0.061119794845581055,
                    -0.02416118048131466,
                    -0.029013000428676605,
                    -0.03802292421460152,
                    0.014863423071801662,
                    -0.11907749623060226,
                    0.0059363385662436485,
                    0.005954238586127758,
                    -0.20644478499889374,
                    -0.0763385221362114,
                    0.005867768544703722,
                    -0.027496840804815292,
                    0.04965503513813019,
                    0.23779115080833435,
                    -0.1557234674692154,
                    -0.02647056244313717,
                    -0.3394412100315094,
                    0.013401281088590622,
                    -0.31684407591819763,
                    -0.45561468601226807,
                    0.10585588961839676,
                    -0.39476898312568665,
                    -1.021964192390442,
                    -1.059855341911316,
                    -0.7577013969421387,
                    -0.22178544104099274,
                    -0.08962727338075638,
                    -0.14026883244514465,
                    -0.07219932973384857,
                    -0.002817396307364106,
                    0.03438884764909744,
                    -0.07371608167886734,
                    -0.07321763783693314,
                    -0.22129802405834198,
                    -0.28147971630096436,
                    -0.11179223656654358,
                    -0.18052563071250916,
                    -0.040938250720500946,
                    -0.08735499531030655,
                    -0.30264386534690857,
                    -1.048308253288269,
                    -0.9999009370803833,
                    -1.9782480001449585,
                    -2.2441928386688232,
                    -0.8512542247772217,
                    -1.9709851741790771,
                    -2.0157127380371094,
                    -1.9611645936965942,
                    -3.496906042098999,
                    -1.3667354583740234,
                    0.5388159155845642,
                    -0.897078812122345,
                    -1.7856343984603882,
                    -2.958956480026245,
                    -1.977234125137329,
                    0.506598174571991,
                    2.6355841159820557,
                    0.06459403783082962,
                    0.08182229101657867,
                    0.08793996274471283,
                    -0.16058480739593506,
                    -0.31413733959198,
                    -0.1062333807349205,
                    0.009342477656900883,
                    -0.7974575757980347,
                    -0.7867165803909302,
                    -1.9314157962799072,
                    -2.933621883392334,
                    -0.6540826559066772,
                    -2.1936278343200684,
                    -4.120805263519287,
                    -2.4973044395446777,
                    0.1438429355621338,
                    -0.7008118629455566,
                    0.7056028246879578,
                    1.8690012693405151,
                    -0.1558852195739746,
                    -2.5985138416290283,
                    -1.0883063077926636,
                    0.06167514622211456,
                    1.0911915302276611,
                    2.5596888065338135,
                    2.9944517612457275,
                    4.266562461853027,
                    2.344008684158325,
                    -0.18692466616630554,
                    0.005405363626778126,
                    -0.020589051768183708,
                    -0.34317299723625183,
                    0.8684750199317932,
                    -0.42244935035705566,
                    -0.5366201996803284,
                    -1.0158549547195435,
                    -1.066186547279358,
                    -1.5173898935317993,
                    -3.074439764022827,
                    -0.22156526148319244,
                    0.6191953420639038,
                    -0.9318069815635681,
                    0.3145931661128998,
                    0.5936433672904968,
                    -1.471474289894104,
                    0.5899665355682373,
                    1.0760440826416016,
                    -1.3304165601730347,
                    -1.613764762878418,
                    0.7579582333564758,
                    1.2534085512161255,
                    1.3304251432418823,
                    0.23729293048381805,
                    1.6725345849990845,
                    4.037805557250977,
                    0.6170365810394287,
                    -0.02493516355752945,
                    0.017179861664772034,
                    0.0944395363330841,
                    0.46523022651672363,
                    -0.8309668302536011,
                    -0.14472956955432892,
                    -0.7371053099632263,
                    -0.3739875257015228,
                    -0.8450055122375488,
                    -3.193916082382202,
                    -2.1376917362213135,
                    0.08802300691604614,
                    -0.5025486350059509,
                    -0.8513885140419006,
                    0.5446265935897827,
                    0.5752509832382202,
                    0.39982932806015015,
                    -0.10818596184253693,
                    -0.9586538672447205,
                    -1.7040685415267944,
                    1.0200393199920654,
                    1.4143517017364502,
                    1.3477669954299927,
                    1.3611639738082886,
                    0.5916721820831299,
                    0.525597095489502,
                    4.6744232177734375,
                    3.2866110801696777,
                    1.834067702293396,
                    0.027874989435076714,
                    -0.1537427008152008,
                    0.20776571333408356,
                    -1.1543703079223633,
                    -0.7351662516593933,
                    -0.5082458257675171,
                    0.011127423495054245,
                    -2.419201612472534,
                    -3.2587106227874756,
                    -2.321600914001465,
                    -0.8620015978813171,
                    -1.266289472579956,
                    -1.5402339696884155,
                    1.6317455768585205,
                    0.166386678814888,
                    -0.036576829850673676,
                    0.8954379558563232,
                    1.0342599153518677,
                    1.0521905422210693,
                    0.8953800201416016,
                    0.8630954027175903,
                    1.1872076988220215,
                    2.2935190200805664,
                    1.500451922416687,
                    0.1992906779050827,
                    0.036612339317798615,
                    3.287703037261963,
                    2.3659965991973877,
                    0.01589334011077881,
                    -0.09450684487819672,
                    -0.8360419869422913,
                    -0.7371270656585693,
                    -0.4802195131778717,
                    -0.351902574300766,
                    -0.9777503609657288,
                    -4.125548362731934,
                    -3.2625577449798584,
                    -2.6990835666656494,
                    -1.1590605974197388,
                    -2.017200469970703,
                    1.0293411016464233,
                    1.4993053674697876,
                    0.0800851359963417,
                    -0.33726346492767334,
                    1.4532732963562012,
                    0.5355955362319946,
                    0.8509830832481384,
                    -0.16145509481430054,
                    0.6480725407600403,
                    0.17723554372787476,
                    0.1622086614370346,
                    0.8638772964477539,
                    0.7747925519943237,
                    -1.2240169048309326,
                    3.1005444526672363,
                    0.7419162392616272,
                    0.03567279502749443,
                    0.0062039257027208805,
                    -0.7718300819396973,
                    -0.6494956612586975,
                    -0.4177596867084503,
                    -0.6133477091789246,
                    -2.491007089614868,
                    -2.9747133255004883,
                    -2.9650771617889404,
                    0.3254481256008148,
                    -1.422724962234497,
                    -2.070542812347412,
                    0.9409523606300354,
                    0.33480846881866455,
                    0.030851148068904877,
                    -0.34208643436431885,
                    1.3263990879058838,
                    0.17610429227352142,
                    -0.4019011855125427,
                    -0.5708954930305481,
                    -0.7360023856163025,
                    -1.2923680543899536,
                    -0.1685154139995575,
                    0.6393898129463196,
                    3.9449195861816406,
                    0.9347369074821472,
                    1.176870346069336,
                    0.13158132135868073,
                    -0.03561463952064514,
                    -0.06932402402162552,
                    0.04878685250878334,
                    -0.38892772793769836,
                    -0.7413336634635925,
                    -0.5724300146102905,
                    -1.303146481513977,
                    -0.5887380242347717,
                    -0.6034330725669861,
                    0.7152959704399109,
                    -1.796052098274231,
                    -0.12290365993976593,
                    0.914869487285614,
                    1.1333401203155518,
                    0.27052080631256104,
                    -0.09872956573963165,
                    -1.0234375,
                    -2.43078351020813,
                    -1.927382230758667,
                    -0.40031397342681885,
                    -0.730107307434082,
                    -2.4930808544158936,
                    0.8423486948013306,
                    1.5636305809020996,
                    1.2233192920684814,
                    0.4969482123851776,
                    2.5413200855255127,
                    0.20286156237125397,
                    0.01736423186957836,
                    -0.09192827343940735,
                    -0.10613004118204117,
                    -0.5758181214332581,
                    -0.8739676475524902,
                    -0.1996079832315445,
                    0.2488514631986618,
                    -0.5035123229026794,
                    -2.0070981979370117,
                    -0.22827966511249542,
                    -0.7164713740348816,
                    -0.3149093985557556,
                    0.5235407948493958,
                    0.6340863704681396,
                    -0.3142080307006836,
                    -0.630979061126709,
                    -2.063708782196045,
                    -3.0709664821624756,
                    -1.6248629093170166,
                    -1.3408312797546387,
                    -2.911109685897827,
                    -1.2169981002807617,
                    -0.30658793449401855,
                    0.17208018898963928,
                    0.349448561668396,
                    -0.9226707220077515,
                    0.41569384932518005,
                    0.18886801600456238,
                    -0.07896742224693298,
                    -0.06963132321834564,
                    -0.03568575158715248,
                    -0.8099592924118042,
                    -0.8497345447540283,
                    0.48626142740249634,
                    -0.2192479372024536,
                    -1.4442416429519653,
                    -0.8364495038986206,
                    -0.34137263894081116,
                    -0.3049210011959076,
                    -0.7638863325119019,
                    0.9714012145996094,
                    1.4143750667572021,
                    -0.40644749999046326,
                    -0.9877797961235046,
                    -2.4976673126220703,
                    -1.7256191968917847,
                    -1.0162339210510254,
                    0.2513761818408966,
                    -1.403225064277649,
                    -0.5054800510406494,
                    -1.1646687984466553,
                    -1.4987727403640747,
                    -1.549023985862732,
                    -2.1473450660705566,
                    0.09371548891067505,
                    0.23298130929470062,
                    0.012341056950390339,
                    0.1238921731710434,
                    0.03888387605547905,
                    -0.833230197429657,
                    -0.3240778148174286,
                    0.6576787233352661,
                    -1.4719822406768799,
                    -2.0861122608184814,
                    -0.7396664023399353,
                    -0.10190664231777191,
                    0.5020321011543274,
                    1.475822925567627,
                    1.4008398056030273,
                    0.05735134333372116,
                    -2.121464729309082,
                    -2.3294453620910645,
                    -2.670293092727661,
                    -1.5749716758728027,
                    -0.8080193400382996,
                    0.2342943549156189,
                    -0.4942563772201538,
                    -0.9160348773002625,
                    -0.8598319888114929,
                    -0.3489966094493866,
                    0.7328680157661438,
                    0.9399827122688293,
                    0.26253965497016907,
                    0.25783008337020874,
                    0.20869773626327515,
                    -0.1678466498851776,
                    -0.03193895146250725,
                    -0.6445010304450989,
                    0.6679856777191162,
                    0.563740074634552,
                    -1.2559967041015625,
                    -1.1548701524734497,
                    -0.8561797142028809,
                    -1.3205667734146118,
                    1.350943922996521,
                    1.2866594791412354,
                    -0.0656169056892395,
                    -0.42684048414230347,
                    -1.0977094173431396,
                    -1.9121211767196655,
                    -3.8605732917785645,
                    -2.9013915061950684,
                    -1.3509093523025513,
                    -0.9674508571624756,
                    -1.1758581399917603,
                    0.02755015157163143,
                    0.575091540813446,
                    1.7502937316894531,
                    0.025926904752850533,
                    1.5285128355026245,
                    0.1543995887041092,
                    0.09273488819599152,
                    0.21560846269130707,
                    -0.1605423092842102,
                    -0.49772894382476807,
                    -1.1311886310577393,
                    1.5067170858383179,
                    -0.2091398388147354,
                    -0.22314214706420898,
                    -1.8180595636367798,
                    -2.089484930038452,
                    -1.9351814985275269,
                    -0.3936719000339508,
                    0.6928586363792419,
                    0.19839243590831757,
                    -1.1456636190414429,
                    -0.9956209063529968,
                    -1.0277650356292725,
                    -2.274583101272583,
                    -0.7361788749694824,
                    -0.8274120092391968,
                    -0.933809757232666,
                    -1.127382755279541,
                    -0.23600102961063385,
                    1.922410249710083,
                    0.7938623428344727,
                    -1.4428879022598267,
                    0.004407527390867472,
                    -0.037429001182317734,
                    -0.07276380062103271,
                    0.05303866043686867,
                    -0.09608352184295654,
                    -0.5025683641433716,
                    0.2832304537296295,
                    0.7191736698150635,
                    -1.165726661682129,
                    -0.20075474679470062,
                    -1.3601539134979248,
                    -1.0483123064041138,
                    -2.244863986968994,
                    0.7762805223464966,
                    0.6949236989021301,
                    0.03793274611234665,
                    0.02034411020576954,
                    -0.4935806393623352,
                    0.014187362976372242,
                    -0.923299252986908,
                    0.18880146741867065,
                    -0.7298656105995178,
                    0.45888134837150574,
                    0.7016656398773193,
                    0.9192572236061096,
                    0.28525763750076294,
                    -2.431959390640259,
                    -1.326043963432312,
                    -0.6611470580101013,
                    -0.051517684012651443,
                    -0.04794652387499809,
                    0.06704442948102951,
                    -0.1908942610025406,
                    -0.5611273646354675,
                    -0.39296555519104004,
                    -0.7658519148826599,
                    -0.37188485264778137,
                    0.9940496683120728,
                    -0.6245163679122925,
                    -0.33248165249824524,
                    -1.5902960300445557,
                    -1.9123324155807495,
                    -2.9876294136047363,
                    -2.495100259780884,
                    -1.4694464206695557,
                    -1.3812757730484009,
                    1.1303881406784058,
                    -0.14434866607189178,
                    1.0507268905639648,
                    1.119634747505188,
                    0.1329076588153839,
                    0.03568054363131523,
                    0.38790076971054077,
                    -1.8021187782287598,
                    -3.4906039237976074,
                    -0.9023310542106628,
                    -0.9151213765144348,
                    -0.2244451642036438,
                    -0.06399434059858322,
                    0.36694347858428955,
                    -0.0574333593249321,
                    -0.6017407178878784,
                    -0.7978122234344482,
                    2.0104312896728516,
                    1.8277039527893066,
                    1.622499704360962,
                    1.001948595046997,
                    0.35733458399772644,
                    -1.9576696157455444,
                    -4.053877353668213,
                    -3.356837749481201,
                    -1.9219446182250977,
                    -1.6587519645690918,
                    -1.7996975183486938,
                    0.3100211024284363,
                    1.5167722702026367,
                    1.7475216388702393,
                    0.48971688747406006,
                    -1.419382095336914,
                    -0.7372862100601196,
                    -1.7084505558013916,
                    -2.085570812225342,
                    -0.9857407808303833,
                    -0.8791161179542542,
                    -0.9950801134109497,
                    -0.3205333352088928,
                    -0.14689335227012634,
                    0.06979019939899445,
                    0.019630983471870422,
                    -1.250279188156128,
                    -3.4051129817962646,
                    1.9460792541503906,
                    1.6973412036895752,
                    1.2658591270446777,
                    1.3054217100143433,
                    1.877421259880066,
                    0.8178240656852722,
                    -0.08934349566698074,
                    -1.7457493543624878,
                    -1.014907956123352,
                    0.3451884090900421,
                    -0.9979342222213745,
                    -0.5887462496757507,
                    1.6437628269195557,
                    0.7115694284439087,
                    -0.6913365721702576,
                    -3.7568085193634033,
                    -1.3068886995315552,
                    -1.450239658355713,
                    -1.577938437461853,
                    -0.5197418928146362,
                    -0.9886600971221924,
                    -0.9591624736785889,
                    -0.1782982498407364,
                    -0.11916571855545044,
                    0.04252457618713379,
                    -0.5271182656288147,
                    -1.7345771789550781,
                    -3.3989510536193848,
                    0.011223108507692814,
                    0.9600632190704346,
                    0.4758674204349518,
                    0.14034928381443024,
                    3.970708131790161,
                    2.6067252159118652,
                    1.6507924795150757,
                    0.6125497221946716,
                    0.38002344965934753,
                    1.591063380241394,
                    -0.5583975315093994,
                    -0.06946970522403717,
                    0.2491481751203537,
                    0.7166343331336975,
                    -2.540574789047241,
                    -2.6701507568359375,
                    -2.8512320518493652,
                    -1.6294478178024292,
                    -1.6141934394836426,
                    -0.730089008808136,
                    -1.1345350742340088,
                    -1.1124682426452637,
                    -0.33386921882629395,
                    0.04660297930240631,
                    -0.010976499877870083,
                    -0.534970223903656,
                    -1.805206060409546,
                    -2.164252996444702,
                    0.2691170871257782,
                    -0.07242191582918167,
                    -0.23416991531848907,
                    1.0614835023880005,
                    2.002634048461914,
                    1.74490487575531,
                    0.05110055208206177,
                    0.2176203429698944,
                    -0.03646242618560791,
                    0.460319459438324,
                    -0.6225295066833496,
                    -0.32418370246887207,
                    -0.3191066384315491,
                    -0.14585256576538086,
                    -1.5607225894927979,
                    -3.6691863536834717,
                    -3.0416109561920166,
                    -1.7025699615478516,
                    -0.4455784559249878,
                    -0.8625062108039856,
                    -1.0850203037261963,
                    -0.8724575638771057,
                    -0.3767211139202118,
                    0.023864081129431725,
                    0.07256573438644409,
                    -0.4110802412033081,
                    -1.119166612625122,
                    1.7132036685943604,
                    0.5651570558547974,
                    -0.030429460108280182,
                    0.48929890990257263,
                    1.1598711013793945,
                    -0.039596639573574066,
                    -0.9441148042678833,
                    -0.6691113114356995,
                    0.02663937769830227,
                    -0.8073007464408875,
                    -0.7234939336776733,
                    0.47547975182533264,
                    0.08015945553779602,
                    -0.5092055201530457,
                    -0.21971191465854645,
                    -2.0309624671936035,
                    -3.299027442932129,
                    -2.9761288166046143,
                    -1.501707911491394,
                    -0.4124429225921631,
                    -0.8817543387413025,
                    -0.9480143785476685,
                    -0.11293115466833115,
                    -0.6539394855499268,
                    0.07073821127414703,
                    0.0874660536646843,
                    -0.04603423550724983,
                    -0.35308414697647095,
                    2.377107858657837,
                    1.9119733572006226,
                    2.2740211486816406,
                    0.8629968762397766,
                    0.3772884011268616,
                    0.8295542597770691,
                    1.3992310762405396,
                    1.38477623462677,
                    0.4386691451072693,
                    0.9687486886978149,
                    0.5006055235862732,
                    0.38794779777526855,
                    -0.21087244153022766,
                    -1.1080255508422852,
                    0.2634100317955017,
                    0.5233350992202759,
                    -0.1047535315155983,
                    0.03542088717222214,
                    -0.2396857589483261,
                    -0.8958431482315063,
                    0.15508754551410675,
                    0.16048671305179596,
                    0.05437149479985237,
                    -0.34383824467658997,
                    -0.05574079602956772,
                    -0.015446530655026436,
                    -0.04672212526202202,
                    -0.5168800950050354,
                    -1.0571593046188354,
                    -0.7783797383308411,
                    0.09946556389331818,
                    -2.1792163848876953,
                    0.3909197151660919,
                    1.0287388563156128,
                    3.1725528240203857,
                    2.7597146034240723,
                    0.9643330574035645,
                    2.1087467670440674,
                    0.0892309918999672,
                    0.36819693446159363,
                    -1.8093483448028564,
                    -1.2114330530166626,
                    -1.0586134195327759,
                    0.5051949620246887,
                    0.25551334023475647,
                    2.109835624694824,
                    -0.16983316838741302,
                    -0.13318845629692078,
                    0.08498116582632065,
                    -0.08712229877710342,
                    -0.1414947807788849,
                    -0.059765513986349106,
                    0.009211733937263489,
                    0.04420168325304985,
                    0.018131600692868233,
                    0.018277592957019806,
                    -0.3522283732891083,
                    -0.7752962112426758,
                    -1.5757465362548828,
                    -2.2780215740203857,
                    -0.07702262699604034,
                    -1.6396771669387817,
                    1.2661439180374146,
                    0.5377187132835388,
                    1.1276037693023682,
                    0.9848636984825134,
                    0.3741445243358612,
                    -2.5137221813201904,
                    -2.908188581466675,
                    -1.9319202899932861,
                    -0.7515993714332581,
                    0.978072464466095,
                    0.5143265724182129,
                    0.38952091336250305,
                    0.24159975349903107,
                    0.5162880420684814,
                    0.0262334905564785,
                    -0.3250758647918701,
                    -0.08445408940315247,
                    -0.058835141360759735,
                    -0.03397978097200394,
                    0.030342428013682365,
                    0.013151362538337708,
                    0.002832189667969942,
                    -0.04075390473008156,
                    0.044377151876688004,
                    -1.7422951459884644,
                    -1.9686353206634521,
                    -1.906186580657959,
                    -0.7446793913841248,
                    0.4089672565460205,
                    -0.021126169711351395,
                    -0.0918043702840805,
                    -0.19855482876300812,
                    1.1341450214385986,
                    -0.8230279088020325,
                    -1.5612765550613403,
                    0.44844743609428406,
                    1.0907204151153564,
                    0.9806985259056091,
                    0.3991580605506897,
                    0.14749230444431305,
                    -0.05925535783171654,
                    -0.03338633477687836,
                    0.06121474876999855,
                    0.04484289139509201,
                    -0.05422491207718849,
                    -0.03846973180770874,
                    0.00956342276185751,
                    -0.03755545616149902,
                    0.03689586743712425,
                    0.05367022007703781,
                    0.021464724093675613,
                    0.08783398568630219,
                    -0.014982174150645733,
                    -0.05902932584285736,
                    -0.04380225017666817,
                    -0.04146512225270271,
                    -0.09272679686546326,
                    0.009200789034366608,
                    0.09816671162843704,
                    0.16780565679073334,
                    -0.03645261004567146,
                    -0.07348035275936127,
                    -0.012291202321648598,
                    -0.10160009562969208,
                    -0.1339617371559143,
                    -0.0866217315196991,
                    -0.045202262699604034,
                    -0.08884359896183014,
                    -0.12458769977092743,
                    -0.1682129204273224,
                    0.02585139311850071,
                    0.007516577374190092,
                    -0.0029145497828722,
                    0.050061315298080444,
                    0.0015810709446668625
                ],
                [
                    0.009612076915800571,
                    -0.025306575000286102,
                    0.05620032548904419,
                    0.0004554162151180208,
                    -0.08573403209447861,
                    -0.022533537819981575,
                    -0.014997930265963078,
                    -0.04611589387059212,
                    -0.06360086798667908,
                    0.007512853480875492,
                    0.015333647839725018,
                    0.06305162608623505,
                    -0.028976012021303177,
                    -0.031807444989681244,
                    -0.02536485344171524,
                    -0.024704977869987488,
                    0.004482448101043701,
                    0.05423551797866821,
                    0.0790015310049057,
                    -0.013680406846106052,
                    0.07035257667303085,
                    0.025348180904984474,
                    0.01026349887251854,
                    0.007761683315038681,
                    -0.009496930986642838,
                    -0.00552038848400116,
                    0.015820946544408798,
                    -0.005632068961858749,
                    0.06227170303463936,
                    -0.008871285244822502,
                    0.09471346437931061,
                    -0.08937417715787888,
                    0.02701570652425289,
                    0.03675495833158493,
                    0.2938903272151947,
                    0.6521994471549988,
                    -0.297686368227005,
                    -0.3929947316646576,
                    -0.2523126006126404,
                    -1.433815360069275,
                    -0.8395065665245056,
                    0.051908668130636215,
                    2.03936767578125,
                    -0.7639121413230896,
                    -1.6015625,
                    -1.2734811305999756,
                    1.1294058561325073,
                    1.3138096332550049,
                    2.499826431274414,
                    1.9557313919067383,
                    1.4152904748916626,
                    1.2471919059753418,
                    0.06292916089296341,
                    0.056797537952661514,
                    -0.12321261316537857,
                    0.04712822660803795,
                    -0.02998705580830574,
                    -0.023222919553518295,
                    -0.08185326308012009,
                    -1.9672093391418457,
                    -2.208134889602661,
                    -0.3690124452114105,
                    0.5292701125144958,
                    0.2746026813983917,
                    -1.8048092126846313,
                    -1.9289119243621826,
                    -4.070032596588135,
                    -3.567383289337158,
                    -2.2637054920196533,
                    0.15429137647151947,
                    -0.2040012925863266,
                    0.9801638126373291,
                    2.3929617404937744,
                    3.030089855194092,
                    2.3990402221679688,
                    3.1904218196868896,
                    1.4113235473632812,
                    0.6019675135612488,
                    1.3035658597946167,
                    1.0280935764312744,
                    -0.21685969829559326,
                    -0.2902998626232147,
                    -0.10502772033214569,
